digraph Tree {
node [shape=box] ;
0 [label="X[9] <= 23.5\ngini = 0.459\nsamples = 424\nvalue = [434, 240]"] ;
1 [label="X[18] <= -49.5\ngini = 0.366\nsamples = 345\nvalue = [412, 131]"] ;
0 -> 1 [labeldistance=2.5, labelangle=45, headlabel="True"] ;
2 [label="X[9] <= 18.5\ngini = 0.139\nsamples = 59\nvalue = [7, 86]"] ;
1 -> 2 ;
3 [label="X[0] <= 7.5\ngini = 0.268\nsamples = 29\nvalue = [7, 37]"] ;
2 -> 3 ;
4 [label="X[16] <= 9.5\ngini = 0.057\nsamples = 24\nvalue = [1, 33]"] ;
3 -> 4 ;
5 [label="X[16] <= 8.5\ngini = 0.095\nsamples = 15\nvalue = [1, 19]"] ;
4 -> 5 ;
6 [label="gini = 0.0\nsamples = 8\nvalue = [0, 13]"] ;
5 -> 6 ;
7 [label="X[0] <= 5.5\ngini = 0.245\nsamples = 7\nvalue = [1, 6]"] ;
5 -> 7 ;
8 [label="gini = 0.0\nsamples = 6\nvalue = [0, 6]"] ;
7 -> 8 ;
9 [label="gini = 0.0\nsamples = 1\nvalue = [1, 0]"] ;
7 -> 9 ;
10 [label="gini = 0.0\nsamples = 9\nvalue = [0, 14]"] ;
4 -> 10 ;
11 [label="X[1] <= 7534.5\ngini = 0.48\nsamples = 5\nvalue = [6, 4]"] ;
3 -> 11 ;
12 [label="gini = 0.0\nsamples = 1\nvalue = [0, 2]"] ;
11 -> 12 ;
13 [label="X[1] <= 22521.0\ngini = 0.375\nsamples = 4\nvalue = [6, 2]"] ;
11 -> 13 ;
14 [label="gini = 0.0\nsamples = 3\nvalue = [6, 0]"] ;
13 -> 14 ;
15 [label="gini = 0.0\nsamples = 1\nvalue = [0, 2]"] ;
13 -> 15 ;
16 [label="gini = 0.0\nsamples = 30\nvalue = [0, 49]"] ;
2 -> 16 ;
17 [label="X[18] <= 601424.5\ngini = 0.18\nsamples = 286\nvalue = [405, 45]"] ;
1 -> 17 ;
18 [label="X[18] <= 48361.0\ngini = 0.029\nsamples = 256\nvalue = [399, 6]"] ;
17 -> 18 ;
19 [label="X[0] <= 11.5\ngini = 0.015\nsamples = 244\nvalue = [383, 3]"] ;
18 -> 19 ;
20 [label="gini = 0.0\nsamples = 235\nvalue = [372, 0]"] ;
19 -> 20 ;
21 [label="X[2] <= 298.5\ngini = 0.337\nsamples = 9\nvalue = [11, 3]"] ;
19 -> 21 ;
22 [label="gini = 0.0\nsamples = 4\nvalue = [6, 0]"] ;
21 -> 22 ;
23 [label="X[1] <= 45027.0\ngini = 0.469\nsamples = 5\nvalue = [5, 3]"] ;
21 -> 23 ;
24 [label="gini = 0.0\nsamples = 4\nvalue = [5, 0]"] ;
23 -> 24 ;
25 [label="gini = 0.0\nsamples = 1\nvalue = [0, 3]"] ;
23 -> 25 ;
26 [label="X[2] <= 4300.0\ngini = 0.266\nsamples = 12\nvalue = [16, 3]"] ;
18 -> 26 ;
27 [label="gini = 0.0\nsamples = 1\nvalue = [0, 2]"] ;
26 -> 27 ;
28 [label="X[9] <= 19.0\ngini = 0.111\nsamples = 11\nvalue = [16, 1]"] ;
26 -> 28 ;
29 [label="gini = 0.0\nsamples = 7\nvalue = [9, 0]"] ;
28 -> 29 ;
30 [label="X[1] <= 27636.0\ngini = 0.219\nsamples = 4\nvalue = [7, 1]"] ;
28 -> 30 ;
31 [label="X[9] <= 21.5\ngini = 0.5\nsamples = 2\nvalue = [1, 1]"] ;
30 -> 31 ;
32 [label="gini = 0.0\nsamples = 1\nvalue = [0, 1]"] ;
31 -> 32 ;
33 [label="gini = 0.0\nsamples = 1\nvalue = [1, 0]"] ;
31 -> 33 ;
34 [label="gini = 0.0\nsamples = 2\nvalue = [6, 0]"] ;
30 -> 34 ;
35 [label="X[2] <= 671490.0\ngini = 0.231\nsamples = 30\nvalue = [6, 39]"] ;
17 -> 35 ;
36 [label="X[18] <= 1052157.5\ngini = 0.201\nsamples = 29\nvalue = [5, 39]"] ;
35 -> 36 ;
37 [label="X[2] <= 329949.5\ngini = 0.36\nsamples = 11\nvalue = [4, 13]"] ;
36 -> 37 ;
38 [label="X[0] <= 5.0\ngini = 0.49\nsamples = 4\nvalue = [4, 3]"] ;
37 -> 38 ;
39 [label="gini = 0.0\nsamples = 2\nvalue = [0, 3]"] ;
38 -> 39 ;
40 [label="gini = 0.0\nsamples = 2\nvalue = [4, 0]"] ;
38 -> 40 ;
41 [label="gini = 0.0\nsamples = 7\nvalue = [0, 10]"] ;
37 -> 41 ;
42 [label="X[18] <= 9494791.0\ngini = 0.071\nsamples = 18\nvalue = [1, 26]"] ;
36 -> 42 ;
43 [label="gini = 0.0\nsamples = 14\nvalue = [0, 22]"] ;
42 -> 43 ;
44 [label="X[1] <= 31423.5\ngini = 0.32\nsamples = 4\nvalue = [1, 4]"] ;
42 -> 44 ;
45 [label="gini = 0.0\nsamples = 2\nvalue = [0, 2]"] ;
44 -> 45 ;
46 [label="X[1] <= 41967.0\ngini = 0.444\nsamples = 2\nvalue = [1, 2]"] ;
44 -> 46 ;
47 [label="gini = 0.0\nsamples = 1\nvalue = [1, 0]"] ;
46 -> 47 ;
48 [label="gini = 0.0\nsamples = 1\nvalue = [0, 2]"] ;
46 -> 48 ;
49 [label="gini = 0.0\nsamples = 1\nvalue = [1, 0]"] ;
35 -> 49 ;
50 [label="X[18] <= 18.0\ngini = 0.279\nsamples = 79\nvalue = [22, 109]"] ;
0 -> 50 [labeldistance=2.5, labelangle=-45, headlabel="False"] ;
51 [label="gini = 0.0\nsamples = 42\nvalue = [0, 69]"] ;
50 -> 51 ;
52 [label="X[12] <= 3.5\ngini = 0.458\nsamples = 37\nvalue = [22, 40]"] ;
50 -> 52 ;
53 [label="X[3] <= 9.25\ngini = 0.34\nsamples = 15\nvalue = [18, 5]"] ;
52 -> 53 ;
54 [label="X[18] <= 236732.5\ngini = 0.266\nsamples = 13\nvalue = [16, 3]"] ;
53 -> 54 ;
55 [label="gini = 0.0\nsamples = 10\nvalue = [16, 0]"] ;
54 -> 55 ;
56 [label="gini = 0.0\nsamples = 3\nvalue = [0, 3]"] ;
54 -> 56 ;
57 [label="X[2] <= 95002.5\ngini = 0.5\nsamples = 2\nvalue = [2, 2]"] ;
53 -> 57 ;
58 [label="gini = 0.0\nsamples = 1\nvalue = [0, 2]"] ;
57 -> 58 ;
59 [label="gini = 0.0\nsamples = 1\nvalue = [2, 0]"] ;
57 -> 59 ;
60 [label="X[7] <= 4.742\ngini = 0.184\nsamples = 22\nvalue = [4, 35]"] ;
52 -> 60 ;
61 [label="X[5] <= 9.0\ngini = 0.49\nsamples = 3\nvalue = [3, 4]"] ;
60 -> 61 ;
62 [label="gini = 0.0\nsamples = 2\nvalue = [0, 4]"] ;
61 -> 62 ;
63 [label="gini = 0.0\nsamples = 1\nvalue = [3, 0]"] ;
61 -> 63 ;
64 [label="X[18] <= 43.0\ngini = 0.061\nsamples = 19\nvalue = [1, 31]"] ;
60 -> 64 ;
65 [label="gini = 0.0\nsamples = 1\nvalue = [1, 0]"] ;
64 -> 65 ;
66 [label="gini = 0.0\nsamples = 18\nvalue = [0, 31]"] ;
64 -> 66 ;
}